FANN_FLO_2.1
num_layers=3
learning_rate=0.700000
connection_rate=1.000000
network_type=0
learning_momentum=0.000000
training_algorithm=2
train_error_function=1
train_stop_function=0
cascade_output_change_fraction=0.010000
quickprop_decay=-0.000100
quickprop_mu=1.750000
rprop_increase_factor=1.200000
rprop_decrease_factor=0.500000
rprop_delta_min=0.000000
rprop_delta_max=50.000000
rprop_delta_zero=0.100000
cascade_output_stagnation_epochs=12
cascade_candidate_change_fraction=0.010000
cascade_candidate_stagnation_epochs=12
cascade_max_out_epochs=150
cascade_min_out_epochs=50
cascade_max_cand_epochs=150
cascade_min_cand_epochs=50
cascade_num_candidate_groups=2
bit_fail_limit=3.49999994039535520000e-001
cascade_candidate_limit=1.00000000000000000000e+003
cascade_weight_multiplier=4.00000005960464480000e-001
cascade_activation_functions_count=10
cascade_activation_functions=3 5 7 8 10 11 14 15 16 17 
cascade_activation_steepnesses_count=4
cascade_activation_steepnesses=2.50000000000000000000e-001 5.00000000000000000000e-001 7.50000000000000000000e-001 1.00000000000000000000e+000 
layer_sizes=11 11 2 
scale_included=0
neurons (num_inputs, activation_function, activation_steepness)=(0, 0, 0.00000000000000000000e+000) (0, 0, 0.00000000000000000000e+000) (0, 0, 0.00000000000000000000e+000) (0, 0, 0.00000000000000000000e+000) (0, 0, 0.00000000000000000000e+000) (0, 0, 0.00000000000000000000e+000) (0, 0, 0.00000000000000000000e+000) (0, 0, 0.00000000000000000000e+000) (0, 0, 0.00000000000000000000e+000) (0, 0, 0.00000000000000000000e+000) (0, 0, 0.00000000000000000000e+000) (11, 5, 5.00000000000000000000e-001) (11, 5, 5.00000000000000000000e-001) (11, 5, 5.00000000000000000000e-001) (11, 5, 5.00000000000000000000e-001) (11, 5, 5.00000000000000000000e-001) (11, 5, 5.00000000000000000000e-001) (11, 5, 5.00000000000000000000e-001) (11, 5, 5.00000000000000000000e-001) (11, 5, 5.00000000000000000000e-001) (11, 5, 5.00000000000000000000e-001) (0, 5, 0.00000000000000000000e+000) (11, 0, 5.00000000000000000000e-001) (0, 0, 0.00000000000000000000e+000) 
connections (connected_to_neuron, weight)=(0, 2.39678788185119630000e+000) (1, -6.91183507442474370000e-001) (2, 7.46157288551330570000e-001) (3, 5.26690125465393070000e-001) (4, 2.78288912773132320000e+000) (5, -1.53052961826324460000e+000) (6, 5.26961386203765870000e-001) (7, -3.94717073440551760000e+000) (8, -2.87470519542694090000e-001) (9, 1.45048344135284420000e+000) (10, 1.50347423553466800000e+000) (0, -8.80332827568054200000e-001) (1, 1.59825444221496580000e+000) (2, 2.03765845298767090000e+000) (3, 1.10046744346618650000e+000) (4, 2.07140827178955080000e+000) (5, 1.11772894859313960000e+000) (6, 1.38355684280395510000e+000) (7, 3.67557096481323240000e+000) (8, 1.87452328205108640000e+000) (9, 9.86953020095825200000e-001) (10, 9.31073307991027830000e-001) (0, 9.29779767990112300000e-001) (1, 2.97314548492431640000e+000) (2, 1.21286189556121830000e+000) (3, 1.25663471221923830000e+000) (4, 1.36865890026092530000e+000) (5, 1.07033705711364750000e+000) (6, 2.06087636947631840000e+000) (7, 3.76704740524291990000e+000) (8, 2.40180492401123050000e+000) (9, 8.17676782608032230000e-001) (10, 8.20910036563873290000e-001) (0, 7.59181007742881770000e-002) (1, 1.34192442893981930000e+000) (2, -3.31976026296615600000e-001) (3, 9.46217656135559080000e-001) (4, 1.87571394443511960000e+000) (5, 7.99288034439086910000e-001) (6, 1.31382524967193600000e+000) (7, 3.53404164314270020000e+000) (8, 2.16185402870178220000e+000) (9, 1.12821793556213380000e+000) (10, 9.93623971939086910000e-001) (0, 8.26040029525756840000e-001) (1, 8.62907350063323970000e-001) (2, 1.79705381393432620000e+000) (3, 4.02867095544934270000e-003) (4, -7.17754662036895750000e-001) (5, -4.48190391063690190000e-001) (6, 4.60261434316635130000e-001) (7, -3.60680007934570310000e+000) (8, -5.61148107051849370000e-001) (9, 6.19847893714904790000e-001) (10, 5.70454120635986330000e-001) (0, 9.71477508544921880000e-001) (1, 6.44916415214538570000e-001) (2, 1.43061137199401860000e+000) (3, 1.23299688100814820000e-001) (4, 1.54857611656188960000e+000) (5, -5.81509172916412350000e-001) (6, 2.79499471187591550000e-001) (7, -2.46613097190856930000e+000) (8, -4.06961888074874880000e-001) (9, -6.14896595478057860000e-001) (10, -4.54843461513519290000e-001) (0, 1.95560002326965330000e+000) (1, 5.34464478492736820000e-001) (2, 4.61866468191146850000e-001) (3, -1.60571897029876710000e+000) (4, 2.41984081268310550000e+001) (5, -2.20790157318115230000e+001) (6, -1.11030876636505130000e+000) (7, -7.99627208709716800000e+000) (8, 1.04587805271148680000e+000) (9, 5.19341975450515750000e-002) (10, 1.31298854947090150000e-001) (0, 2.51063871383666990000e+000) (1, -3.02977681159973140000e-001) (2, 5.43341338634490970000e-001) (3, 3.83695662021636960000e-001) (4, 2.27872800827026370000e+000) (5, -1.18486285209655760000e+000) (6, 4.29529637098312380000e-001) (7, -3.85881328582763670000e+000) (8, -1.83923497796058650000e-001) (9, 1.44321238994598390000e+000) (10, 1.45155596733093260000e+000) (0, 2.40618944168090820000e+000) (1, -3.09758234024047850000e+000) (2, 6.22711062431335450000e-001) (3, 6.12045884132385250000e-001) (4, 2.87216782569885250000e+000) (5, -1.56603395938873290000e+000) (6, 5.78355133533477780000e-001) (7, -3.86162114143371580000e+000) (8, -1.73489287495613100000e-001) (9, 1.53063762187957760000e+000) (10, 1.51326096057891850000e+000) (0, 1.86090663075447080000e-001) (1, 1.03228425979614260000e+000) (2, -1.13380508422851560000e+001) (3, -7.49460637569427490000e-001) (4, 6.66708898544311520000e+000) (5, -6.57717752456665040000e+000) (6, -2.50867390632629390000e+000) (7, 4.47817325592041020000e+000) (8, 1.16744422912597660000e+000) (9, -3.00158470869064330000e-001) (10, -2.62620687484741210000e-001) (11, -3.35329174995422360000e-002) (12, -5.34376978874206540000e-001) (13, -5.80766856670379640000e-001) (14, -5.20489692687988280000e-001) (15, 1.46640038490295410000e+000) (16, 3.80345749855041500000e+000) (17, 1.51079237461090090000e+000) (18, 6.80874735116958620000e-002) (19, -3.84824164211750030000e-002) (20, -6.43909037113189700000e-001) (21, 1.55520331859588620000e+000) 
